-18, -35, 107, 97, 27, -109, 91, 8, -13, 34, -122, -24, -14, -57, 83, -126
78, -118, 124, -122, -77, 23, 53, -42, 29, -117, -31, 111, 39, -80, 5, 29
57, -90, -10, -27, -109, -11, -62, 37, 37, -97, 71, -64, 102, -49, -54, -52
30, 33, 66, 39, 84, 94, -64, -92, -123, -44, 67, -94, -20, -77, 27, 37
-21, -40, -95, -53, 20, -18, 1, 71, -27, 124, 64, -62, -107, 113, 98, -93
12, -107, -91, 56, 5, -95, 20, 123, -85, -4, -32, -44, -92, -103, -51, -87
-105, -117, 33, -26, 48, 128, 65, -50, 80, 71, 81, 14, 34, 49, -61, 116
-96, 70, 105, -121, -37, -15, 98, 103, -6, 57, 104, 25, -78, 18, -29, -91
-4, 100, 89, 5, 27, 49, 31, 67, -107, 33, -61, 9, -117, 41, 34, -108
-83, 84, 124, 115, 83, 88, 85, -10, -11, -62, 83, 77, 90, 36, -94, 11
-52, 33, -41, -26, -65, 112, 19, 86, -96, -65, 84, 122, 96, 50, 6, -46
36, -53, -18, -56, 58, -125, 26, -16, -120, 20, -50, -64, -29, -88, -84, 16
122, 28, -17, -52, 77, 5, 28, -36, -39, -23, 20, -2, 113, -7, 47, -45
96, 14, 35, -44, -37, 101, 45, 78, -114, 0, 50, -3, 30, -40, 21, 107
2, -84, 119, -108, -63, 3, -49, -63, 74, -77, -74, 38, 21, 122, 30, -109
52, 9, 47, 90, 10, -4, 80, 84, -73, 99, 23, -34, 26, 84, -63, -115
41, -92, 93, -31, -5, 6, 125, 59, -98, 95, -126, -39, -110, 124, 76, 114
-83, -72, -97, 10, 81, -64, 90, -35, 108, 115, -13, 4, 85, -34, -83, -38
89, 119, -45, 23, -43, 79, -19, -123, 5, -99, 75, -41, 48, -73, 111, -104
90, -23, -109, 74, -49, 103, -24, 13, -101, 78, 95, 58, -26, -99, -26, -69
36, 126, -57, 54, -112, 124, -100, -40, 45, -32, 44, 63, 15, -57, -19, 24
11, -40, 4, -97, -6, 70, 76, -102, -45, -17, 74, 116, 98, -114, -76, -46
-55, 2, -17, -45, -33, -10, 75, -37, 115, 97, -110, -78, -101, -53, -73, -83
-27, -100, -73, 57, -56, -18, -39, -80, 73, -52, 107, -98, -28, -116, 104, -25
-120, 98, -72, -10, 98, 102, -118, -87, 123, -105, 49, 72, -34, -21, -68, 72
-2, 50, -46, 86, -67, -94, -36, 56, -21, -24, 31, 128, 104, -10, -108, -51
-3, 25, 55, -115, 36, 9, 46, 76, -127, 112, 18, 123, -36, 27, -40, 49
-76, 127, 94, 122, 13, 15, -58, 117, 26, -39, -61, -13, 63, -3, -6, 46
63, -112, 10, -96, -17, -81, -69, 44, 77, 119, 45, -76, 82, -111, 91, -20
6, -97, 95, 13, -58, -29, 25, 34, 18, -34, 121, 88, -36, -102, 51, -2
83, 103, -47, -126, 7, 84, 23, 10, 50, -24, 57, 121, -73, -80, -20, 73
-113, 37, 89, 73, 128, -98, 30, 76, 49, -4, 103, 71, -126, 115, 67, 27
-23, -127, 125, 8, 105, 67, 118, -89, -88, 34, -51, -47, -120, 48, 65, -11
-4, -56, -64, 105, 55, -96, 62, -40, 82, 121, -64, 34, 58, -98, -11, -59
112, 34, 7, 26, 101, 60, 12, -47, 92, -96, -76, 60, 33, -126, -8, 74
-108, 33, -105, -78, 49, 46, -69, 80, 28, -49, -11, 56, -89, 113, 122, -5
-84, -2, 70, -107, -5, -62, 123, -76, 45, -11, -22, 10, -16, 27, -13, -11
-50, -87, -22, -85, -55, -31, -28, -35, 37, 35, -2, 29, -82, 99, 40, -66
-16, 41, -85, -79, 99, 76, -101, 43, 28, -63, 18, 66, 80, 116, -54, 47
56, 64, 17, -74, 34, -77, 41, 117, 119, 3, -85, -126, -55, 101, -40, 19
-92, -79, 120, -37, 94, 43, -64, -33, -32, 88, -33, -87, -33, 64, -79, -30
-27, -64, -51, 50, -15, 90, 17, 93, 55, 83, 71, -91, -118, -30, 113, -65
-111, -64, -73, 72, 82, -61, -92, -126, -117, -83, -13, 40, -113, 106, 48, 66
-81, 71, 16, -42, 96, 23, 39, 39, 111, 69, 40, 96, -9, -59, 75, -96
103, 114, 40, -51, 71, 124, -46, 50, -37, 18, 120, 87, -50, 99, -45, -121
3, 71, 24, -46, -54, 33, -98, -118, 43, -114, -64, -107, -121, 124, 83, -1
41, -77, 29, 32, -21, 76, 77, -31, 109, 32, -126, -49, 82, -20, -56, -78
100, 79, 40, 45, -42, 21, -35, 40, -63, 71, 74, 78, 16, -85, -3, 21
94, 107, 8, -4, 128, -10, 125, -98, 52, -69, 101, -108, 7, -83, 114, -61
-82, -5, 97, -12, 59, 42, -58, 128, -117, 64, -74, -27, -120, -30, -76, 57
94, 92, 109, 9, 73, 45, 58, 51, -81, 87, 89, 83, -75, -87, -67, 65
106, -79, -84, 125, 71, -56, 103, 111, -30, -106, 52, -41, -125, -5, -69, 35
38, 123, -115, 41, -35, 46, -103, -118, -21, -100, 82, -53, 77, 29, -12, 22
-57, -127, 31, -77, 52, 105, 83, -59, -119, -51, 4, 25, 59, -117, 87, 3
18, 95, 114, -83, 106, -12, 79, -36, -45, 4, 76, 53, -118, -86, 118, -27
38, -1, 73, -76, 122, 18, -85, -58, -12, -34, 104, -102, -2, 30, -47, -1
-67, -127, -64, 96, -108, -64, -21, 110, -40, 14, -58, 86, -14, -25, 93, 3
77, -76, -84, -59, 77, 20, 86, -40, -94, -35, -114, -79, -88, -73, -61, 77
45, -107, -108, -117, 26, -52, 115, -42, -42, 110, -100, 94, -25, 72, -7, 90
-40, -68, 47, -20, 94, -35, 91, 16, -96, -40, -3, 7, -26, -101, -61, 91
-44, 31, 35, -73, -56, 1, -41, -29, -55, -70, 86, 15, 115, -77, -24, 41
46, -86, 105, -46, -55, 104, -125, -123, 102, -119, 42, 6, -32, -70, -18, 117
118, -48, -27, -9, -92, 103, 126, -18, 124, 50, -88, -37, -120, -101, 72, -118
127, -90, 77, -32, -103, -110, 123, -126, -99, -66, 50, -70, 1, -123, 36, -97
-55, -11, 83, -63, 28, -106, 106, -12, 80, 16, 30, -45, 96, 35, -13, 68
99, 23, -8, -73, -1, -87, 62, -102, 20, 128, -67, -111, 41, -59, -81, 80
61, -80, -30, -16, 104, -38, -86, -50, -104, -80, -124, -21, -114, 2, 61, -125
113, -11, -34, -109, -78, -53, -41, -17, 57, -119, -126, 88, 70, -100, -74, 104
82, -104, 123, -25, -89, 8, 1, 52, -77, 109, 115, 51, 4, -70, -83, 124
-72, -52, -10, -84, -28, -23, -16, -12, -91, -120, 101, 4, 80, 63, 5, -116
-82, 107, -124, 27, -112, 67, -101, 31, 65, 63, -95, 73, -90, -115, -121, 117
-110, -56, -58, -85, 51, 73, -61, -110, 39, 79, 0, 92, -37, 81, -25, -1
-38, -88, -117, -21, -101, -3, -72, 13, -102, -59, 73, -110, 107, -85, -123, 49
32, -120, 0, -25, -106, 33, -44, 71, 113, 1, 72, -114, 14, -43, 56, 11
-67, -79, 108, -119, 57, -5, -55, 109, 65, 68, -98, 127, 63, 62, 15, 89
92, -109, -114, 24, -125, 68, -109, -24, -109, 48, 69, 51, 7, -99, -122, 16
2, 50, 102, 0, 111, 26, 96, -8, 60, -29, -17, -126, 25, 117, 4, 95
-104, -49, -114, -102, -96, 109, -19, -82, -19, -105, -73, -68, 61, -54, -126, -61
-89, 116, -44, 51, -53, -15, 25, 1, -1, -52, -5, 97, 63, 14, -1, -57
-112, 3, 122, 74, -22, 19, -105, -85, 6, 117, -109, 14, 13, 80, 83, 23
92, -3, -116, -83, 37, 100, 46, 127, -31, 127, 44, 111, -67, 124, -36, 116
-15, -118, -123, 23, 110, -28, 47, -65, -112, -43, -120, 89, 127, -96, -113, 57
-120, -102, 56, -98, 52, -118, 48, -58, 99, -32, 22, -115, 45, -65, 10, -31
-50, -57, 90, 122, 26, 77, 97, 124, 16, 19, -66, 14, 120, 111, 6, 65
69, -71, 92, -60, -8, -92, -76, 37, -4, 8, -1, -102, -76, 97, 107, 26
26, 21, -35, -90, -125, -26, 37, -71, -20, 69, 107, -30, 100, 11, 47, 75
-113, 86, -115, -17, 2, 101, -115, 85, -112, 22, -31, 82, -85, -87, -45, 30
2, -42, 81, 57, -64, 96, -4, 111, 116, -96, 88, -38, -73, -70, -55, -57
-107, -46, -82, -38, 63, 91, -87, 56, 110, -126, 97, -14, 116, 56, 38, -16
-19, -117, 27, 34, 58, -64, -3, 35, -125, -116, 66, 128, -100, -96, 33, 1
-117, -63, 100, 99, 49, -22, 64, 90, 26, -88, -71, -104, 49, -80, -44, -76
-70, -29, -11, -24, 104, 11, -24, -87, 69, -43, -60, 76, -85, -62, 64, -6
5, -121, -10, -116, 25, 53, 21, -86, -4, -116, 105, 63, 112, 75, 103, 77
27, -101, 79, -106, 50, -76, -58, 65, -62, -68, 60, -26, -74, -69, 52, -94
78, 29, 91, -30, 74, 30, -37, -38, 75, -99, -117, 96, -64, 55, -57, 116
103, -42, -14, 107, -111, 41, 27, -80, -91, -68, 94, -86, -82, -25, 86, -123
15, -101, 24, 75, 98, 74, -63, 117, -119, 97, -8, -3, 52, 1, 106, 74
-98, 85, 84, 53, 107, 62, 48, -54, 25, -49, 121, -116, 117, -52, -55, 29
13, -20, -39, -16, -118, 37, -71, -118, -126, -28, 77, 49, 108, -29, -82, -4
31, 25, -97, -95, 128, -2, 15, -34, 64, -73, -52, -119, -58, 93, -8, -29
70, -98, -47, 27, 116, 87, 49, 32, -30, -119, 49, 51, 5, -119, 71, -55
111, 123, 120, 81, -48, -77, -103, -9, 108, 58, 97, -36, -80, -94, -46, -103
56, -31, -80, 115, 30, 34, -32, -121, -13, 44, -105, 42, -93, 29, -70, 6
-89, 3, 106, -75, 114, -43, -104, 62, 75, 42, 121, -93, 29, 70, -21, 84
-105, -60, -48, 99, 5, -87, 90, 128, 50, 123, 108, 90, 11, 10, -95, -78
125, -48, 128, 46, 72, 68, -119, -116, -37, -21, 42, -126, 99, 86, 9, 126
-78, 19, -100, -77, 102, -55, -80, 7, 69, 36, 24, 38, 75, -27, 90, 64
112, -5, -7, 106, 73, 89, 48, 92, 37, -60, -30, -4, -57, 86, -81, -45
89, 5, -79, 113, 10, 36, 63, -16, -105, 19, 12, -102, 73, 66, -11, 105
44, 106, 117, -75, 39, 60, -86, 126, 17, -23, 116, -47, 48, -69, -19, -2
-32, -17, -99, -37, 106, -113, 125, -89, 78, 34, 112, 0, -116, -82, -122, -77
-81, 9, -31, -105, 54, -121, -73, -28, 70, 91, 33, 89, 20, 107, -94, -55
-15, 39, 56, 31, -2, -52, 35, -99, -77, 30, 108, 53, 66, 30, -7, 92
38, 65, 71, -5, 4, 93, -92, 75, -20, 76, 36, -50, 107, -115, -88, -118
-121, -60, -78, -71, -37, 24, 120, -2, -31, -26, -101, 0, 68, -16, -88, 106
-12, 31, -4, -11, 52, -7, 64, -124, 96, 81, 45, 63, 46, -16, -36, -92
-25, -85, 5, 51, -12, 9, -2, -126, 105, -60, 81, -67, -30, 25, 100, 79
-104, -69, -118, -126, 26, -64, -4, 30, 13, -26, -47, -84, -114, 121, -55, -79
98, 117, -1, 73, -45, -27, 80, -2, -73, 126, -117, -113, 59, 120, 13, 83
-34, -26, -117, 60, -47, 94, 60, -109, 124, -36, 128, 117, 32, 112, -104, -107
20, -45, 63, -124, -77, -120, 114, 17, 39, 65, 27, -100, 71, -42, -60, -60
26, -122, -105, -48, 127, 3, 17, 5, 113, -45, 51, 6, 2, 50, -46, -74
46, 76, -63, -78, 69, -3, -56, -116, -53, 117, -47, 70, -100, 12, 30, 84
-7, 10, -25, 119, 124, 76, 84, -49, 31, 45, -106, -40, 86, -48, 103, 12
-34, -41, -124, -105, 53, -97, 74, -56, 111, 58, -2, -93, 101, -110, -109, 127
-90, 5, 15, -94, -71, -84, 13, 24, 23, 99, 127, -69, 27, -85, 1, -97
73, 28, 1, 38, 22, -83, 32, -111, -71, -80, 44, -74, 34, -91, 85, -46
51, 115, -29, 15, 39, 49, 110, -43, 87, 83, -87, 46, 117, 66, -52, -89
81, -125, -2, 119, 9, 106, 82, 94, -103, 106, 23, 54, 45, 25, 42, 27
-9, -109, 58, -105, 64, -80, 44, 110, -97, -102, 81, -103, 106, -45, 36, 71
61, 28, -122, 60, 95, -80, 10, -53, -18, 39, 101, -100, -115, -120, -54, 4
7, 34, 7, 90, -113, 79, 38, -47, -88, 32, 92, 25, -112, 40, -59, -126
127, 11, -122, 51, 107, -51, -14, -65, 98, -58, 69, -81, 73, 69, -44, 80
-77, 127, 3, -29, -42, 59, 49, -40, -20, 24, 88, -98, -78, -46, -84, -71
-107, 19, 103, -18, 8, 12, 48, -18, -123, 117, -47, 52, -54, -108, -91, 64
-103, -29, -98, 23, 65, -112, -26, -1, -105, -72, -28, -96, 18, 82, -52, -40
30, 126, -41, -62, 25, 91, -86, -30, 39, 101, 0, 45, -67, 92, 37, 112
-41, -26, -24, 52, 63, 49, 98, 104, 29, -126, -104, -95, -122, -18, 20, -19
-54, -48, 6, 92, 75, 9, 110, -37, 30, 83, -9, -117, 8, -80, 120, 49
128, -66, 39, 114, 79, 71, 10, 65, 102, 96, -1, 56, -52, -29, 96, -119
56, -9, 116, 122, 126, 110, 25, -19, -62, 95, -25, 102, -118, -72, 38, 6
-117, 114, -98, -115, 95, 22, -37, 47, 66, -85, 115, 77, -14, -64, -59, -102
-86, 29, 109, -2, 77, 99, 92, -121, 17, 26, -57, 86, -60, -108, -73, -9
-8, -36, 16, 55, -80, 113, -24, 108, -105, -102, -43, 35, -53, 98, -46, -17
-111, 44, -75, 69, -88, 118, -121, 70, 104, -106, 86, 115, 56, 30, -19, -14
-72, 70, 19, -96, 72, -111, -110, -29, 87, 51, 95, -12, 121, 60, 45, 88
68, -103, 65, -107, -9, 22, 1, -22, -12, -26, -28, -95, -102, -29, 89, -93
-13, -88, -97, 100, -44, 45, 57, 81, 50, -109, 88, 30, 91, -92, -75, -75
120, -123, 24, -22, 122, -60, 44, 103, 45, 68, -26, 91, -105, -125, -36, -62
-51, -72, 57, -72, -98, 21, 82, -50, 68, 116, -57, 95, -80, 99, 18, -75
30, -63, -126, 96, 70, -110, 96, 50, 64, -66, 4, 34, 116, 16, -68, -105
-120, -62, 17, 109, 38, 112, -116, 117, -105, -26, 1, -127, 24, -36, -112, -47
56, 99, -118, -54, -89, -5, 73, 43, 9, 51, -8, 42, -24, -48, 76, 51
-112, -124, -1, -101, -108, 102, -94, 39, -26, 112, -116, 73, -92, 96, 86, -38
-12, 119, 70, -50, -99, 47, -7, 11, -6, 76, 84, -24, -124, 31, -50, 6
-70, 25, -123, -15, 35, 89, 30, 32, 114, -124, 62, -79, -103, -60, 102, -114
101, 70, 79, 51, -79, 56, -100, 121, 27, 67, 19, -3, 55, 103, -87, -120
116, -34, -122, 80, 103, 15, 49, -88, 86, -24, -26, -125, 10, -102, 55, -13
87, -35, 49, -120, -111, -22, 20, 82, 109, -109, 87, 82, -113, -12, 28, 8
107, 60, 12, -24, -110, 87, -118, 4, -121, 104, 82, 38, -54, -93, 95, 38
16, 72, -27, 60, -72, 101, 13, 19, 26, 37, -9, -36, 13, 128, 7, 43
48, -83, -51, -92, 29, -54, 66, 121, -123, -73, -48, 118, -116, 43, 28, -74
97, 50, 125, 35, 86, 59, -56, 62, 59, -66, -40, 112, -56, -100, 69, -77
21, -75, 124, 127, -107, -125, -19, -29, -23, -18, 30, -60, -13, -65, -117, -116
99, -76, 108, -56, 15, 34, -33, -7, 75, -42, 18, -105, -22, 85, 20, -71
87, -110, -23, -20, 60, -63, -108, 97, 94, 45, -43, -14, -50, 4, 34, -47
18, -88, -107, -44, -6, -122, 75, -102, 77, 99, 74, 55, -37, 25, 27, -87
35, -102, -23, 109, 65, -1, -73, 64, -39, -90, -53, -88, -17, 69, 72, -9
88, 0, 24, 80, -111, 111, -64, 0, 92, -64, -20, -83, 67, -108, -122, -109
-85, -102, 73, 85, 95, 75, 63, 108, -71, -65, 99, 55, -126, -51, -82, -43
-58, 116, 62, 24, 7, 11, -62, 109, 82, -98, -83, -24, 101, -9, -23, -96
-47, 35, 111, 89, -1, -103, 113, -77, -30, 100, -102, -55, -19, -110, 33, -2
35, 112, -60, 43, 17, -101, 95, -44, 45, -99, -83, 64, -32, -100, -26, 17
-19, 80, 23, -97, 115, 5, 120, -32, -117, -47, -116, 60, 19, -61, 81, 81
-65, -35, 38, 68, 42, -64, -1, -54, -50, -85, 11, -55, 90, -87, 2, -101
103, 107, -96, -21, -87, 55, 10, -47, 73, -19, 91, 46, 22, -119, 116, -45
93, 82, 108, -84, -42, -100, -29, 54, 27, 49, -101, -59, 35, -58, 92, 117
19, 72, -29, -71, -15, -118, 101, 127, -41, 115, -43, 40, -125, -17, 48, -71
87, -48, 92, -22, 25, 21, 35, 64, 108, -119, 102, 84, 102, 95, 26, 1
-64, -76, 46, -4, 18, 22, 17, 77, -43, 86, 55, 124, -73, 106, 122, 73
-52, 55, 113, 73, 76, -17, 124, -51, 125, 85, -25, -89, -16, 16, -125, 30
-3, -69, 17, 43, -106, 5, -35, -61, -61, 18, 34, -16, 106, -25, 12, 35
100, 114, -106, -60, -97, -10, 84, -1, 59, -68, 15, 95, 57, -2, 86, 92
-17, -39, 63, -79, 15, -122, -55, 78, 78, 43, -32, 69, 30, -7, -97, 101
-75, -51, 50, 80, 88, 11, 96, -90, -7, 89, -125, 6, -65, -117, -112, -30
39, -55, -108, -108, -10, 71, 67, 10, 41, -100, 77, 84, 29, 109, -104, -62
125, 118, 108, -75, 84, 7, -82, -29, 4, -37, 16, 109, 4, 77, -88, -72
13, -52, 53, 53, -116, -23, -65, -36, 68, 78, -10, -109, 66, -25, 62, -73
14, 72, 117, -75, 58, 60, 105, 99, 35, -125, -93, -97, 81, 25, -34, -59
51, -81, -71, -17, -39, 76, 9, 116, 98, -106, -84, -82, -127, -48, 63, -14
-51, -93, 78, 121, -67, 74, -7, 87, 77, 22, 18, 13, -92, -30, 23, -113
-61, -70, -100, -96, 107, -63, 21, 101, 60, -66, 8, 71, 22, -31, -113, -106
-92, 109, -81, -52, -68, 96, 41, 121, 106, -86, 99, 114, -83, 15, 32, -3
-7, 112, -29, -14, 128, 122, -72, -108, 88, -27, -24, 12, 14, -126, 92, -108
-80, -35, 74, 78, 94, -84, 70, 17, -80, 112, -37, -33, -24, -78, -5, 4
-73, 19, 115, -2, -127, 71, 33, 98, -24, -12, 102, -110, -109, 51, 31, 0
112, 59, -55, -36, -111, 9, 14, 116, 67, -79, 114, -121, -89, 119, -121, 56
98, 52, 39, 99, -74, -91, -77, 73, 42, -96, 111, -60, 50, -47, -28, -76
-74, -53, -97, -20, -8, 110, 23, 8, 119, 53, 39, -12, -71, 69, -109, -77
-57, -11, 110, -49, -4, 28, 64, 10, 55, -25, -9, 115, 62, 52, -83, -21
-114, 49, 120, -20, -63, -6, -108, 49, -94, 42, -124, 67, -109, 55, 84, -8
25, 36, 99, 77, -85, 11, -18, 18, -23, 57, 126, 83, -119, -6, -19, -125
-35, 118, -13, 104, 108, -14, -109, -91, 50, 123, 107, 35, 14, -15, 95, 37
-57, -115, 67, -39, -12, -23, -117, 112, -39, 126, 51, 69, 35, 53, -2, 115
-55, -19, -79, 32, 34, 77, -126, 102, 126, 40, 38, 88, -51, -108, -93, 49
-48, 8, 95, -3, 2, -53, -119, -68, -24, 77, -80, 47, -28, -51, -39, 10
-49, 96, -64, 86, -8, 5, 104, 119, 85, -58, 127, 21, -73, 106, -74, 70
-13, -24, -37, 41, 102, 33, 83, -36, 113, 36, 68, 116, 102, -40, 31, -51
-29, -48, -59, 0, 47, -103, 1, 62, 34, 37, 54, 15, 75, -7, -21, -41
114, 57, -50, -110, -49, -45, -1, 64, 63, -107, -71, 117, -92, 38, -104, 17
-92, 117, 66, -5, 79, 103, -127, 120, 98, -82, 67, -10, -119, 119, -4, 97
23, 86, 118, 65, -74, -39, -7, -49, 69, -124, 76, -106, -103, 72, -102, -51
-124, 62, -57, -2, -44, 120, -8, 104, -95, -37, -116, -91, 32, 58, 45, -54
91, 123, 42, -122, 20, 43, -59, -97, 115, 95, -20, -108, -87, -34, 47, -99
115, -72, 31, 87, 46, 35, -11, 65, 128, 103, -83, -117, 5, -69, 111, -87
93, 95, -10, 95, 93, 68, -107, -31, 50, -57, -9, 99, -32, 83, 101, -4
87, 104, 22, 53, -103, -22, 127, -35, 22, 51, 50, -75, -69, 116, -85, 36
17, -57, 28, -102, 80, -73, 105, 22, -77, 111, -126, -10, 125, 86, 47, -4
-42, -20, -10, -58, -9, 124, -31, -52, 9, -125, -38, -93, 104, 61, 76, 4
93, -26, 12, 58, 106, -98, -15, -98, -91, -104, 75, -115, 85, -83, -101, 27
111, 24, 1, -28, 16, 95, 114, 115, 59, 97, -36, -105, -25, -39, -107, -122
-93, -78, 110, 7, 111, 23, 35, -2, 4, 31, 60, -97, -108, 35, -101, 84
-105, 29, -72, -120, 97, 48, -18, -12, -110, -36, 49, 8, 63, 103, 30, -94
118, 3, -79, -25, 53, -71, -34, -87, 76, -88, 33, 77, 53, 116, -114, 93
48, -22, -30, -72, -92, -86, 123, 70, -48, -38, -15, -3, -19, 25, -17, 85
48, -13, -17, -30, -88, 58, 81, 125, 93, -105, -120, 123, 32, -96, 36, 97
-10, 29, 123, 117, 19, -96, -123, -1, 112, 38, 120, 100, -68, -57, -69, -16
74, -82, -23, 47, 46, -13, -125, -60, -28, 124, -84, -109, 72, -11, 103, 68
-41, -28, 66, -2, 52, 31, 55, 74, 11, -97, -32, -82, -67, -64, -21, 84
1, 90, 117, -73, 93, 126, -23, -2, -56, -62, 73, 44, 60, -61, 96, 10
-94, 16, 26, 19, 122, -77, 119, 79, 52, 74, -46, -126, -45, 9, -65, 115
-67, 29, 24, -8, -126, 46, -19, -119, 12, 10, -73, 62, 46, -13, -112, -94
-69, -80, -16, 24, -71, -110, -31, 128, -44, 76, 21, 83, 29, 32, 103, -127
35, -40, -52, 77, 87, 110, 12, -41, 102, -122, -42, 9, 99, 86, -88, 43
-78, 56, 62, -50, 47, 18, -106, -29, -103, -45, -80, -124, 107, 40, 65, -11
85, 21, -63, 114, 56, -17, -21, 22, 47, -17, 110, 9, 78, 109, -103, -96
-5, 67, 56, -23, -63, -60, 98, -115, 72, 117, 70, -90, -15, 70, 116, -70
-86, -40, -30, 30, 13, -4, -18, 16, 8, -109, 125, 22, 83, 63, -91, 42
-37, 85, -86, -69, -98, -115, -119, -112, 53, -52, 79, 104, 86, -30, -4, 122
0, -37, 47, -12, -31, 50, 45, 31, -28, 56, -62, -77, 102, -68, -58, 122
-65, -91, -47, -78, -41, 26, -55, -115, 79, -60, 8, 121, -58, -3, 110, -83
-95, -65, 60, -21, 73, 120, 115, -111, 3, 54, 6, -2, 58, -50, 62, -106
27, -19, -33, 2, 50, 102, 110, -62, -44, -92, -15, -22, -57, 63, -2, 24
118, -36, 107, 79, -14, -58, 76, 86, 26, -32, -62, 10, -110, -46, 44, -9
-71, 51, 11, -44, 26, -125, -125, -102, 51, 25, 109, 47, -35, -125, -89, 61
-1, 57, 121, -105, -77, 23, -33, 106, 62, -100, -99, 93, 37, -70, 76, -80
-56, 87, 128, -11, 25, 96, 113, 21, 53, 95, -75, 114, 124, -50, -63, 123
-84, 33, 37, -44, 66, 79, -19, -117, 42, -46, 119, 126, -37, 17, -49, 37
-42, 92, 85, -81, 120, -85, 116, -17, 14, 42, 107, 37, 21, -57, 31, 93
-106, 19, 104, -72, -84, 26, -105, 92, 66, 55, -47, 113, -31, 9, 85, 72
-19, 104, 1, 120, -15, -87, -1, -118, -2, 59, -127, -57, -3, 16, 113, 7
-56, -103, -73, 19, -68, -125, 18, 54, 112, 126, 61, 41, 6, 108, -59, -3
-66, -53, -48, -71, 36, 61, 78, 116, -123, 76, -104, 52, -66, -122, 75, 22
75, -88, 28, -14, -60, -64, -22, -77, -62, -55, -37, 63, -46, 3, 70, 84
-84, -17, -63, 71, -57, -119, 121, -76, 67, -37, 55, -18, -64, 59, -111, 127
109, 2, -56, 52, -43, 28, 70, -21, 104, 102, 64, 98, -23, -3, -81, 50
-4, 78, -116, -120, 46, 1, 117, 13, -77, 51, 7, -63, 51, 105, 125, 64
88, -3, 56, -8, 109, -53, 118, -104, 80, -77, 127, -88, 12, 14, -56, 97
-43, -124, 58, 32, -24, -98, -10, -75, -115, 38, 121, -46, -87, -61, -54, -47
63, 123, -102, -19, -93, -118, -99, 51, 102, -29, -108, -86, -66, 1, -54, -84
44, -110, 75, -53, 46, 16, 32, 60, -59, -96, -88, 16, -103, -78, -93, -119
39, 100, 50, -7, -122, 6, 38, -30, 106, -16, -19, -40, 40, 37, 22, 29
76, 65, 101, -101, -94, -79, 103, 122, -86, 125, 4, 123, -81, -71, -113, 10
-8, 38, 75, -72, -76, -115, -44, 36, -95, 16, 115, -70, 49, 64, -68, 0
-54, 23, -101, 108, -19, -17, 20, 75, -45, -110, -32, 55, 54, -46, -100, -68
67, 122, 106, -65, -107, -22, 69, -17, -87, 10, 117, 80, -70, -8, 118, -47
0, -72, 38, -43, 9, 54, 10, -74, 117, 35, 105, 109, 76, 32, -38, 56
-114, -11, -2, -88, -124, -121, -22, -127, 15, -114, -110, 31, 21, -79, 90, -50
4, -6, -39, -68, 5, -114, -41, -94, -34, 55, 26, 64, 127, 10, 38, -109
36, -112, 85, -91, 57, 21, 75, -71, -74, 27, 104, 65, -92, 53, 10, 49
66, 44, -86, -120, -52, -108, 51, -120, -74, -86, -31, -122, -1, 116, 38, 101
32, 42, -65, -14, 2, -110, -43, -16, 84, 94, -109, 92, 74, 7, 22, 44
100, 11, 19, 42, -25, 65, -112, -13, 15, -122, -48, -34, -34, 47, -74, 64
2, -27, -50, 65, 119, 112, -1, 74, -7, 120, 108, 95, 20, -2, 124, 95
83, -86, -62, -25, 39, 11, -42, -111, 2, 86, -66, 3, 110, -99, 113, 23
-116, 2, -2, 28, 90, -70, 111, -111, 12, 104, 58, 24, 12, 20, 124, 104
31, -51, -64, 82, 10, -47, 112, -103, -24, 84, -37, -115, 27, 4, 94, -115
55, 32, 23, 31, 83, -95, 57, -66, -92, 113, 56, -3, -103, 34, 26, 60
95, -123, -9, 48, 95, 60, 114, -53, 126, -16, -127, 59, 74, 78, -109, 86
92, -126, -15, 123, 68, -125, -87, -84, 75, -78, -46, -19, -124, 75, 44, -82
-127, 43, 74, 75, 1, 19, 40, 50, 39, 104, -28, -33, -9, -35, 44, 73
38, 82, -99, -123, -17, 17, 52, 62, -30, 79, 22, 52, 68, 76, -82, -95
-29, -10, -113, 27, -78, -28, 46, 78, -10, -88, -36, -75, -72, 61, 55, 103
-44, -2, -99, 39, 128, -69, 116, -116, 70, 40, 101, 114, 127, 79, 65, -96
-39, -87, 3, 16, 70, 17, 2, -91, -18, -67, 72, 28, 13, -24, -74, -24
-78, 30, -97, -102, 1, -85, 109, -48, 4, -33, -101, 106, 81, 72, 92, 88
20, -77, 11, -27, 65, -52, -122, -104, 61, 48, 42, -76, -93, -27, -119, -91
-72, 40, 36, 120, -53, 92, 6, 54, 117, -31, -95, 89, -34, -121, -13, 34
32, 74, -119, 39, -50, -63, -75, 30, -26, -4, 99, 51, 95, -100, -74, 80
110, -10, 5, 53, -1, 19, -98, 34, 127, 112, -72, -126, -11, 56, 96, 68
-36, 119, -10, -77, -74, -56, -80, -46, -23, 106, 16, -78, -35, -96, 61, 4
2, -16, -67, 57, -115, 110, -127, -73, -12, -34, -24, 115, -78, 54, 114, 59
-120, -54, -110, -105, -70, -118, 48, 118, -28, 18, -73, 29, 16, 65, -43, -46
-75, -48, 33, 42, -88, -31, 12, -84, -112, 21, 48, -6, 18, 94, -71, -11
34, -82, 6, 71, -107, -117, -15, -72, -125, 29, -42, -106, 101, -16, 93, -6
18, 67, 35, 124, -11, -50, -31, 95, 1, 46, -45, -122, 56, 24, -32, -19
-12, -39, -38, -81, 117, -80, -62, -112, 61, -95, 62, 78, 128, 125, -17, 58
-31, 4, -41, -74, -60, 116, -48, -98, -124, 5, -4, 104, 16, -69, 61, -59
117, 127, -88, 86, 82, -73, -29, 51, 92, 82, -75, 103, 19, -95, 113, 107
-27, 99, 48, 7, 127, -113, 59, 49, 70, 21, 106, -63, 36, -112, -27, -114
-17, 46, 101, -46, -16, 26, -125, -82, -11, 48, 117, -91, -6, -28, -16, 12
-29, -118, 68, -45, 9, -70, 80, -32, 109, -104, -122, -50, 10, 115, 34, -4
89, 33, 123, 49, -97, -35, -22, 114, -115, -6, 58, -3, 11, -62, -100, 76
-48, -123, 118, 78, 118, 54, 14, 23, -73, -58, -23, 93, 17, 25, -65, 111
31, 48, 86, -2, -36, 51, 119, -8, -53, -123, 114, 88, -36, 110, 54, -61
63, 123, -33, 40, 37, 56, 103, -51, -49, 7, 59, 33, 114, -16, -102, -115
20, 42, 19, -80, -6, -76, -97, -34, 37, -112, -89, -97, 9, -59, -17, 98
75, -105, 104, -45, 116, -103, -117, -94, -40, 19, 16, 57, -117, 77, 123, 58
54, -111, -93, 57, 61, -120, 46, -41, -101, -58, -125, 26, -89, -118, 55, -29
-33, 5, 39, 19, -38, 126, 62, 51, 120, 91, 76, -23, -16, 47, 94, -95
-64, -70, 111, -124, -85, -10, -45, 100, -48, -104, -71, -14, -90, 26, 24, 4
124, -47, -118, 69, -63, -28, 40, -70, -113, 29, -87, 4, 14, -52, -119, -102
116, -54, 92, 84, -43, -26, 15, -48, 51, 21, 8, -99, -40, -22, -31, 4
-34, 49, 28, -45, 56, 68, 128, -35, -112, -97, 6, 99, -126, -33, -23, -77
70, 68, -125, -27, -62, -25, 97, 39, -82, 29, -108, -50, -85, 101, 16, 126
89, -94, 117, 94, -14, 19, 59, -97, -2, -9, 79, -25, -122, 35, 126, -56
-96, 59, -98, -5, 85, 21, 93, 80, -125, -52, -30, 85, -75, -36, 16, 6
123, 4, 112, -73, -12, 21, 108, -85, 13, 66, -100, -106, -74, -72, 1, 115
110, 30, -111, 72, 37, -16, -107, 54, 40, -71, 84, 9, 12, 122, 125, 45
-95, -100, 53, -88, -47, -52, -122, 6, 23, -35, 48, 63, 20, 38, 28, 58
-31, 28, 115, -43, 99, 98, 125, 72, -24, 88, 78, -61, -2, -15, -120, -94
-79, 64, -68, 105, -90, -2, -11, 84, 81, 124, -21, 9, 51, -8, -65, 36
105, -80, -82, -23, 66, 45, -77, 47, 12, -25, 74, 67, -18, 87, 56, -18
-65, 5, -5, 82, 100, -81, 20, -29, -6, 77, 67, -61, 46, 9, 80, 65
-18, 5, -28, -56, -122, -127, 13, -35, -78, 9, -30, -80, -118, -26, 91, -106
64, 99, -30, -42, 99, -87, -46, 88, -107, 29, 49, -51, 11, 28, 102, -27
-17, -108, -35, 100, 127, 115, -71, 21, 48, 108, -2, -69, 54, 110, 45, 52
24, -99, 98, -101, 52, -67, -95, -99, 13, 110, 72, 25, 88, -71, 74, 88
-74, -119, -81, -67, 22, 68, 25, 75, 3, 3, -3, -49, 51, -28, 107, 49
13, -109, -111, 25, -96, 106, -1, 55, -116, -7, -22, -123, 37, 88, 20, -10
12, 81, 72, -37, 124, 117, -44, -54, 38, 24, 36, -76, -114, -41, 91, -14
-84, 47, -19, -46, -124, -78, -77, -28, 78, 30, -122, 93, 120, -14, 64, -16
46, -85, -37, 19, -83, 92, 83, -64, -22, 70, -114, 37, -89, -118, -59, -8
13, 16, 108, 107, 84, 4, -127, 126, -79, -119, 83, -109, 104, -5, -1, -98
-12, -106, -62, -19, 123, 82, -88, -1, 91, -66, 126, 15, -79, -45, -83, 119
-70, 118, 78, 3, -111, 25, -4, -103, -86, -31, -82, -123, 18, -117, 20, 58
69, -121, -12, -29, -11, -51, 128, 120, -10, 48, 98, -82, -36, -1, -113, -48
-109, 29, -119, 79, 5, -78, -67, 90, 104, -16, 49, -24, 115, 34, 109, 33
-57, -32, -87, 51, -122, -92, -23, -79, 99, -82, 74, 56, 113, 36, 78, -58
-109, -39, 58, 19, -34, 12, -3, -56, 116, -21, -103, 87, 93, 121, -17, 117
84, -23, 49, 45, -112, 71, 25, -58, -73, -90, 22, 44, 76, 15, 46, 15
53, -97, 3, 12, -124, -24, -54, 22, -6, -86, 116, -43, -69, -21, 11, -82
-114, -115, -88, -18, 37, 25, -64, -26, 35, 94, -78, -92, -112, -125, 83, -19
16, 2, 87, 123, 66, -111, -117, -111, 99, -60, -35, 51, 41, 15, 19, 108
95, 96, 109, 22, -38, -88, 21, -127, -2, -89, -7, -89, 102, 39, -40, 65
115, 121, -70, -42, 102, -35, -7, -70, -6, 89, 41, -83, 101, 84, -100, 103
20, 81, 68, 12, 43, 27, -22, 33, -92, -13, 32, 55, -73, 10, 63, 59
121, -85, 42, -18, -65, 93, 39, 103, -92, -92, -23, 128, 128, 115, -102, 7
-68, 45, -43, 21, -84, 41, -116, 60, -20, 22, -14, -78, -41, -90, -114, 57
46, -67, 31, -104, 7, -92, 35, -49, 18, -110, 67, -33, -68, -71, 14, -78
60, -38, -102, -60, -83, 90, 83, 74, -15, 42, -76, -113, -115, -37, 51, 87
2, -78, -67, -50, -11, 32, 17, -47, -109, -116, -48, -114, -94, -53, 54, 9
120, -5, -62, 46, -95, -86, -12, 38, 8, 18, 77, -101, -57, 99, 106, 20
40, -80, -11, -119, -86, -30, 107, 122, -5, -61, 92, -51, -26, -109, -80, -4
62, -62, 78, -106, 112, -44, 61, 47, 125, -13, 107, 23, 79, 104, 29, 32
25, 113, 17, -80, 118, -104, 20, -40, -76, 69, 71, -45, -70, 15, 91, -52
-23, -122, 84, -92, 102, 59, 33, 119, 61, 42, -34, -110, -91, 126, 121, 108
89, -100, -11, 110, 108, -44, 5, -84, 83, -25, -96, -10, 84, 2, -5, 26
64, 64, 119, -27, 87, 10, 81, 97, 4, 107, -21, -5, -74, -83, 84, 99
-30, -33, -119, 23, -53, -53, -105, -57, -117, -9, 44, 20, 62, 41, 79, -74
-47, -89, 38, 43, 115, -35, -118, -18, -79, -95, -49, 123, -3, -113, -86, 41
122, 61, -69, 114, -27, -64, 125, 56, 122, -116, 123, 115, -35, -109, -64, -70
76, -89, 11, -81, 74, 67, -22, 104, 76, 120, -61, -78, -46, 89, -46, 124
103, -33, -52, 41, 119, 31, 62, -44, 31, -91, -40, 6, -33, 93, -86, 113
41, -38, 21, -12, 78, 51, -82, 13, -34, -29, 8, -1, 8, 51, 122, 50
70, -16, 102, 51, -101, -67, 19, -101, 33, -48, -89, -30, 49, -97, -26, -5
-70, 86, 67, -35, -28, -17, 97, 17, 51, 93, 64, -69, -30, 100, 64, -65
0, -38, -1, -80, -118, -83, -68, -14, -119, 123, 104, 41, 126, 37, 102, -59
-74, -53, 86, 114, -99, -122, 79, 6, 40, 25, 99, -118, -125, 72, 48, 16
-96, 7, -91, 45, 65, -29, 117, -89, 85, -70, -70, 122, -93, -86, 71, -64
70, 114, -77, 77, 36, 17, 64, 32, -71, 105, 83, -56, -98, -63, 45, 59
-59, -70, 114, 32, 5, 26, -21, -100, -14, 22, 120, -53, -72, -36, 34, -67
-12, 30, 115, -32, -49, -12, 33, -75, 95, 0, -94, -33, 47, -118, 2, 73
25, -118, -113, 83, -51, 102, 5, -36, 15, 107, 27, -43, 12, 91, 122, -6
-91, -63, -31, 100, -36, -126, 4, -25, 71, -83, 6, -53, 121, -61, -6, -31
-127, 103, -85, -44, -31, 92, 16, 80, -36, 34, -45, -69, 85, -96, 108, 110
16, -110, -46, 76, 1, 65, 50, 89, 43, 36, -117, 82, -82, 6, -67, 1
85, -18, 51, -106, 94, 29, -4, 31, -70, 119, 127, 96, 34, -125, -22, 106
19, -52, 25, -37, 56, -111, 6, -22, -93, -88, -120, -80, -121, -60, 122, 19
-119, -96, -21, 84, -80, 83, 54, 3, -66, -16, 86, -24, -74, -22, 25, -74
113, -108, -113, 71, -64, -85, -22, -92, -43, -66, -44, 12, 18, 43, -28, -45
79, -85, 81, -3, -72, 75, -120, -10, -39, 56, -58, 58, -112, -125, -115, -38
-18, -26, 1, -87, 44, -24, -30, 108, -27, -37, -18, -9, 85, 80, -36, 59
-94, -112, -86, 80, 33, -7, -94, 5, 67, 41, -6, -37, -114, -44, 39, 90
-52, -22, -64, -79, 106, -115, 64, 101, -45, 70, 34, -63, 125, 18, -18, 6
17, -76, 10, 72, 62, -102, -46, -89, -101, 11, 81, 81, 88, 111, -56, 23
-14, -100, -52, -46, 47, -85, -125, 12, -46, 83, 51, 89, 127, 87, -35, -9
-23, 20, 115, 43, -63, 109, 110, -21, 65, -6, 43, -113, -63, -114, 123, 87
86, 25, 93, 122, -90, -5, 105, -16, -70, 108, 127, 36, 108, -127, 34, -15
-101, 101, 7, -76, -7, -80, 23, 120, -94, 63, -45, -109, 117, -113, 4, 121
-43, 97, 114, 107, -76, 1, 20, -21, 128, 24, -120, 85, 119, 7, 17, -60
-41, 63, 46, -115, 114, 29, -122, 36, 1, 4, -31, -16, 4, -66, 116, -80
-40, 74, 40, -127, -111, -106, 103, 95, 104, -28, 57, 51, -6, -111, 75, -77
-107, -29, 41, 4, 17, -36, 111, -82, 89, -85, 79, -114, -86, 41, 103, 106
-93, 123, -5, -91, -111, 52, -118, -50, -43, -24, -18, -111, -88, -16, 27, -39
-61, 93, -39, -66, 103, -108, -32, -7, -94, -87, -70, 99, 14, -12, -6, -81
73, 118, 83, 65, 44, 81, 12, 44, -122, -78, -10, 71, -61, -82, -60, 86
124, 12, -27, -26, 68, 126, 40, -100, -66, 58, 43, -76, -61, -100, -33, 94
13, 6, 77, -67, 77, -113, 87, -109, -126, 81, -71, 117, -36, 8, -127, 49
103, 32, 61, -67, -125, -59, 118, -50, 40, 46, 62, -67, 82, 86, 84, 89
61, -124, 43, 87, -110, 40, 101, -51, 118, -42, 83, -65, -15, -18, 86, 40
78, 67, 19, -67, -13, 47, -71, 90, -5, -92, -29, -100, -55, 40, 91, 126
-127, 42, 55, 107, -80, 25, -61, -27, -41, 56, 114, -38, 92, -26, -81, -81
-53, 25, -39, -84, 75, -124, 113, -88, 24, 38, 17, -114, -19, -2, 35, 4
-55, 84, -105, 107, -31, -91, -118, -84, -112, -98, -88, -42, -35, -7, 111, -100
38, -16, 13, -101, -11, -58, -103, -86, -78, 22, 50, -122, -77, -69, 16, 2
79, -127, 107, -54, -41, -87, 72, 29, -56, -21, -85, -68, -125, 70, -29, -103
55, -29, 79, 100, 27, 125, 5, 6, -49, 10, -22, 85, -98, -37, 123, -95
85, -26, 51, -81, -57, 56, 36, -103, -4, -41, 120, -17, -86, 102, 7, -53
124, 40, 52, 38, 100, 53, -2, 31, 55, 4, -5, -19, -88, -113, 116, 58
-82, 14, 56, 95, 69, 121, -77, -117, -107, 15, 78, -48, -103, -69, -79, 3
-91, -31, -110, -72, 34, 117, -29, -100, 83, -126, -126, 110, 113, -50, -99, 7
40, -69, -16, -126, 46, -120, -6, -23, 122, -111, 47, -110, -2, -54, -14, 116
-71, 84, 36, -44, -49, -115, -35, 60, -48, -38, 85, 94, 43, -64, -44, 100
-111, -99, 40, -65, 24, -100, 89, 128, -70, 31, -19, -47, -50, -63, 72, 52
78, 63, -72, -93, 2, 110, -63, 82, 101, 12, 115, 118, -120, 70, 20, 45
103, -114, -4, 29, 60, -20, -82, 13, -31, 108, 112, 12, -49, 66, -35, 93
-57, -86, -86, 119, 93, -115, -90, 48, 8, 99, 51, -64, 36, 92, 7, -89
75, 3, -37, -45, 8, 6, 94, -52, -124, -82, -32, -29, 72, 106, 18, -33
-125, -43, -111, 23, -71, 105, 43, 89, -73, -75, 109, -26, -33, -54, 68, -106
78, 107, 109, -6, 118, 13, -57, -116, -73, -25, -28, 109, -89, -73, -121, 1
-78, 123, -82, 59, 67, 105, -42, -10, 122, 3, 112, -14, 62, 24, -53, -68
-20, 94, -6, -87, -65, 123, -41, -80, -106, -92, 9, -43, -49, -14, 26, 29
-93, -97, -29, 49, 107, -94, -34, 115, -3, -103, -101, 106, -25, -21, 11, 116
12, 113, 34, 126, 11, 89, 87, -100, 33, -122, -117, 86, 19, 46, -30, 102
-77, -30, 124, 83, 6, -112, 49, -24, -17, -94, 80, -49, -33, 107, -93, -80
-95, -8, 48, 50, 84, 67, 107, -98, -7, -117, -116, 7, 95, 29, 30, -68
-104, 91, -14, 19, 44, -37, 54, -66, 85, -30, -2, -80, -110, 61, 90, 91
23, 56, -90, -55, -97, -122, 66, 44, 70, -17, 82, -106, -2, 89, 115, -63
-119, 32, -110, 113, 63, -127, 60, -23, 58, -99, 108, -31, -82, -124, -24, -122
-114, 8, -36, -20, -88, 97, 53, -108, -18, -49, -104, -105, -111, 47, -57, 54
-38, -126, -5, 81, 28, 6, 1, -112, -125, 60, -45, 22, 109, 126, 61, 10
14, 119, -80, 67, 108, -64, 112, -48, 90, 17, 6, 95, 72, -89, -42, -81
101, 42, 102, 104, 111, 45, -79, 51, 42, 2, 72, -27, 104, -90, 80, 38
-36, 77, 84, 102, -47, 28, -67, -26, 48, -65, -89, -31, 64, -30, -48, -37
-65, 91, -124, 71, -19, 11, -3, -119, 108, 57, 125, 1, -42, -1, 95, -94
127, 96, -16, 35, -66, 78, 43, 121, 25, -10, 102, -115, 44, 40, -34, -27
-55, -115, 41, 33, -34, -25, -102, -116, -118, 40, 47, -40, -82, -111, -98, -45
69, -97, 113, -67, 69, -62, 74, -113, -87, 63, -111, 6, -60, -116, 113, 13
-34, 55, 121, 18, -91, 23, -41, -62, 37, 73, 45, -36, 91, 20, 17, -110
20, -114, 66, -68, 1, -87, -78, 75, -22, -88, 63, -40, -12, 56, -87, 55
-115, 126, -116, -56, -83, 78, 26, 40, 76, 9, -21, 80, 16, -45, 90, 86
-53, 73, 76, 46, 112, -122, -52, -68, -39, 79, 56, -26, 100, 29, -59, -81
38, 57, 77, -47, 20, 6, -61, -92, 27, -18, -51, -110, 64, 74, 58, -113
-127, 71, -39, -77, 103, -25, -12, 114, 12, 46, 72, 87, -38, 17, 101, -33
32, -46, -98, -95, -97, -37, 85, -52, 55, -25, -87, 58, -102, -102, -114, -84
-2, 31, 111, 37, 69, -68, -43, 26, -74, -101, 92, -51, -106, -107, 68, 128
79, 72, 72, 9, 65, 39, 41, -86, 44, -11, 117, -105, 56, 96, -51, -15
-55, 91, -81, 80, 65, -14, 29, -100, -86, 24, -92, 45, -111, -119, -73, -59
22, -37, -123, 107, 96, 118, 11, -83, 100, -58, -16, 21, -21, -50, -118, -58
-102, 16, 101, 100, 16, 53, -43, 23, -21, -110, 73, 69, 109, 74, 45, -99
-71, 20, -71, 39, 78, 122, 17, 118, 17, 28, 107, 119, 42, -33, -31, -81
33, -105, -4, 92, 124, 69, 108, -74, -42, 13, -52, 75, -111, -77, 99, -95
24, -50, 55, 12, -68, -2, 86, 15, -78, -118, -81, 86, -64, 103, 107, 96
89, 74, 17, -79, -69, -100, -122, -41, 81, 85, 86, 26, 20, 122, 94, -28
-72, -23, 48, -113, -56, -99, -112, -16, -56, -106, -100, -44, -83, 82, 5, 11
-40, -19, 5, 55, -29, 55, 93, -35, -109, 32, 55, 37, -86, 107, -104, 27
-34, -79, 108, -29, -62, -12, 81, 9, 90, -68, -51, 76, 30, 107, -94, 26
-111, 29, 119, 112, -61, 58, -71, -19, 59, 19, 46, 120, 5, -80, 119, 118
35, -43, -70, 14, 80, 32, -66, 10, -89, -34, 6, 9, 13, -101, -52, 41
-49, 121, -90, 10, -95, 8, -88, -21, 120, 14, -38, -70, -21, -7, -45, -27
-55, 71, -100, -71, 47, -126, -73, 22, -5, 38, 39, -67, 46, -62, 8, 105
46, 20, 50, 71, 44, 5, 127, 25, 29, -107, -58, -19, 98, -107, 101, -43
-39, 101, -8, 112, 114, 125, -120, -7, -27, 58, 6, -84, -90, 16, -80, -105
83, 29, -33, 78, 67, -93, -95, -62, 40, 56, -76, -6, -108, -113, 37, 98
51, 52, -109, 72, 86, 35, -19, -37, 124, -91, -15, -3, -45, 93, -50, 15
58, 125, -111, -126, -72, 20, 113, -68, 118, 92, 6, 88, 81, 95, 107, -109
-4, -21, -121, -55, 106, 127, 107, 35, -8, 82, -41, -120, 65, 14, -121, 113
-82, -91, -58, -60, 90, 86, 8, -124, 109, 21, 21, -55, -35, -28, 47, 10
-126, 31, 84, 7, 67, -31, -36, -60, -124, -3, -123, 12, -15, -45, 104, 100
-104, -84, 120, 114, 21, -60, 5, 119, 29, -37, -108, 59, -55, -59, 97, -19
63, 4, 98, 72, 83, -118, -4, 79, 95, 73, 50, 20, 36, 105, -77, -120
46, 49, 76, 69, -82, 70, -117, -1, 5, 61, 0, 24, 80, 5, 51, -89
-2, -99, -127, 24, -79, 115, 55, 51, 23, -58, -30, 15, 61, -54, -23, -56
37, 59, -7, 96, 9, -74, -18, 111, -83, 63, 22, 15, -84, 23, 73, 93
-123, 21, 118, -7, -61, 102, 29, 117, -1, -49, 118, -107, -106, -8, -85, 70
-102, 95, -98, -121, 31, 128, -21, 52, 83, 77, -14, 45, 113, -32, 73, 89
-101, 61, -53, -51, -2, 35, 32, -14, -67, 55, -97, -98, 25, -66, 0, 55
14, 90, -15, 33, 102, -85, -15, 106, 50, 3, -69, -27, -109, -118, -62, -111
51, 57, 112, -32, 100, 44, 2, -14, -51, -61, 98, 20, -55, 122, -6, -50
-121, 41, -64, 26, 122, -18, 8, 78, -19, -92, -102, 86, -46, -23, 73, -102
-75, -53, 97, -106, 62, 75, -65, 122, 110, -81, 108, 3, 86, 66, 121, 113
-107, 106, 121, 43, -97, -81, 66, -22, 65, 52, -105, 90, 114, -77, 13, 126
-61, 48, 106, 10, 16, -16, 91, -79, -126, 11, 50, -112, 70, 57, 83, 75
21, 107, -31, -45, -88, -41, 10, -93, -75, -116, -87, 112, 79, -67, 110, 113
91, 79, 22, 70, -105, -116, 1, -18, 101, 12, 86, 112, 41, -53, -84, -11
12, 2, 27, -107, 21, -24, -61, -122, 20, 99, -12, -85, 7, 90, 0, -108
42, 75, -98, -60, 61, 25, 70, 88, -17, -127, -73, -86, -17, 23, 24, -77
-22, -23, 27, 22, 107, -11, 93, 1, 115, -27, -4, 29, -124, -70, 43, -113
-118, 124, 67, 116, -78, -45, -44, 15, 88, 118, -28, -40, 119, 81, -29, 33
7, 57, 41, 119, -86, -11, -90, 2, -118, -44, 74, -93, 29, -92, -8, -118
-124, 46, -11, -114, -41, -39, -106, 106, -85, -48, 16, -68, -123, 61, 36, -3
47, 34, 7, 73, -34, 17, 58, 128, 107, 25, 35, 11, 7, -13, 42, -9
93, -46, -27, 118, 32, -70, 114, -44, 12, -67, 24, -19, -115, -36, 11, -112
64, 23, 117, -16, -82, 71, 23, -80, 3, -36, -30, 23, -29, -17, -96, -124
-117, 37, 71, 113, 88, 24, 22, 105, -8, -111, 68, -27, -77, 101, -92, 30
-47, 42, -64, -11, 26, 105, 82, -110, -65, -54, 20, 123, 92, -127, -96, -54
-40, 7, 38, -25, -105, 56, 57, 108, 120, 40, 31, 77, 83, -70, -46, 65
-94, -86, -70, -48, 78, 69, -71, -73, 66, -114, 44, 77, 128, -89, -5, 101
59, -55, 114, -26, -53, 21, -37, 26, 31, -120, -39, -100, 31, 30, 94, 79
